<?xml version="1.0"?>
<opencv_storage>
<cascade>
  <stageType>BOOST</stageType>
  <featureType>HAAR</featureType>
  <height>20</height>
  <width>20</width>
  <stageParams>
    <boostType>GAB</boostType>
    <minHitRate>9.9500000476837158e-01</minHitRate>
    <maxFalseAlarm>5.0000000000000000e-01</maxFalseAlarm>
    <weightTrimRate>9.4999999999999996e-01</weightTrimRate>
    <maxDepth>1</maxDepth>
    <maxWeakCount>100</maxWeakCount></stageParams>
  <featureParams>
    <maxCatCount>0</maxCatCount>
    <featSize>1</featSize>
    <mode>BASIC</mode></featureParams>
  <stageNum>10</stageNum>
  <stages>
    <!-- stage 0 -->
    <_>
      <maxWeakCount>1</maxWeakCount>
      <stageThreshold>9.6715927124023438e-01</stageThreshold>
      <weakClassifiers>
        <_>
          <internalNodes>
            0 -1 13 1.7367511987686157e-02</internalNodes>
          <leafValues>
            -9.9312716722488403e-01 9.6715927124023438e-01</leafValues></_></weakClassifiers></_>
    <!-- stage 1 -->
    <_>
      <maxWeakCount>2</maxWeakCount>
      <stageThreshold>-7.7194698154926300e-02</stageThreshold>
      <weakClassifiers>
        <_>
          <internalNodes>
            0 -1 3 2.6507381349802017e-02</internalNodes>
          <leafValues>
            -9.7811359167098999e-01 9.0778362751007080e-01</leafValues></_>
        <_>
          <internalNodes>
            0 -1 10 -5.6732986122369766e-02</internalNodes>
          <leafValues>
            9.0091890096664429e-01 -9.0090525150299072e-01</leafValues></_></weakClassifiers></_>
    <!-- stage 2 -->
    <_>
      <maxWeakCount>2</maxWeakCount>
      <stageThreshold>-2.1651433408260345e-01</stageThreshold>
      <weakClassifiers>
        <_>
          <internalNodes>
            0 -1 17 7.3803174309432507e-03</internalNodes>
          <leafValues>
            -9.4161361455917358e-01 8.7726449966430664e-01</leafValues></_>
        <_>
          <internalNodes>
            0 -1 12 1.9551685545593500e-03</internalNodes>
          <leafValues>
            7.2509926557540894e-01 -9.2545574903488159e-01</leafValues></_></weakClassifiers></_>
    <!-- stage 3 -->
    <_>
      <maxWeakCount>2</maxWeakCount>
      <stageThreshold>-1.3488474488258362e-01</stageThreshold>
      <weakClassifiers>
        <_>
          <internalNodes>
            0 -1 0 -1.3394004665315151e-02</internalNodes>
          <leafValues>
            8.1567424535751343e-01 -9.3879908323287964e-01</leafValues></_>
        <_>
          <internalNodes>
            0 -1 18 4.9200351350009441e-03</internalNodes>
          <leafValues>
            -8.3041638135910034e-01 8.0391430854797363e-01</leafValues></_></weakClassifiers></_>
    <!-- stage 4 -->
    <_>
      <maxWeakCount>2</maxWeakCount>
      <stageThreshold>-1.7058064043521881e-01</stageThreshold>
      <weakClassifiers>
        <_>
          <internalNodes>
            0 -1 1 -5.1072360947728157e-03</internalNodes>
          <leafValues>
            8.3318585157394409e-01 -9.3595504760742188e-01</leafValues></_>
        <_>
          <internalNodes>
            0 -1 15 1.1938772164285183e-02</internalNodes>
          <leafValues>
            -8.9059621095657349e-01 7.6537442207336426e-01</leafValues></_></weakClassifiers></_>
    <!-- stage 5 -->
    <_>
      <maxWeakCount>3</maxWeakCount>
      <stageThreshold>2.2562259435653687e-01</stageThreshold>
      <weakClassifiers>
        <_>
          <internalNodes>
            0 -1 14 -6.2706097960472107e-03</internalNodes>
          <leafValues>
            7.6911669969558716e-01 -9.6960103511810303e-01</leafValues></_>
        <_>
          <internalNodes>
            0 -1 7 1.2675656937062740e-02</internalNodes>
          <leafValues>
            -9.1814839839935303e-01 6.5058010816574097e-01</leafValues></_>
        <_>
          <internalNodes>
            0 -1 9 1.1876012198626995e-02</internalNodes>
          <leafValues>
            -8.9461344480514526e-01 5.4464346170425415e-01</leafValues></_></weakClassifiers></_>
    <!-- stage 6 -->
    <_>
      <maxWeakCount>2</maxWeakCount>
      <stageThreshold>-3.2756483554840088e-01</stageThreshold>
      <weakClassifiers>
        <_>
          <internalNodes>
            0 -1 2 -6.9203106686472893e-03</internalNodes>
          <leafValues>
            7.5362014770507812e-01 -9.7133553028106689e-01</leafValues></_>
        <_>
          <internalNodes>
            0 -1 16 9.8858140408992767e-03</internalNodes>
          <leafValues>
            -9.0792423486709595e-01 6.4377063512802124e-01</leafValues></_></weakClassifiers></_>
    <!-- stage 7 -->
    <_>
      <maxWeakCount>2</maxWeakCount>
      <stageThreshold>-1.2697055935859680e-01</stageThreshold>
      <weakClassifiers>
        <_>
          <internalNodes>
            0 -1 19 1.5565719455480576e-02</internalNodes>
          <leafValues>
            -8.4171122312545776e-01 8.2934534549713135e-01</leafValues></_>
        <_>
          <internalNodes>
            0 -1 4 1.3106551952660084e-02</internalNodes>
          <leafValues>
            -8.2576179504394531e-01 7.1474069356918335e-01</leafValues></_></weakClassifiers></_>
    <!-- stage 8 -->
    <_>
      <maxWeakCount>2</maxWeakCount>
      <stageThreshold>-1.1734044551849365e-01</stageThreshold>
      <weakClassifiers>
        <_>
          <internalNodes>
            0 -1 8 1.6000889241695404e-02</internalNodes>
          <leafValues>
            -7.4744373559951782e-01 8.1998157501220703e-01</leafValues></_>
        <_>
          <internalNodes>
            0 -1 6 -2.8575798496603966e-03</internalNodes>
          <leafValues>
            6.3010334968566895e-01 -8.8891953229904175e-01</leafValues></_></weakClassifiers></_>
    <!-- stage 9 -->
    <_>
      <maxWeakCount>2</maxWeakCount>
      <stageThreshold>-1.9744896888732910e-01</stageThreshold>
      <weakClassifiers>
        <_>
          <internalNodes>
            0 -1 11 -6.9202673621475697e-03</internalNodes>
          <leafValues>
            7.9412424564361572e-01 -7.8272676467895508e-01</leafValues></_>
        <_>
          <internalNodes>
            0 -1 5 -6.7360821412876248e-04</internalNodes>
          <leafValues>
            5.8527779579162598e-01 -9.9617350101470947e-01</leafValues></_></weakClassifiers></_></stages>
  <features>
    <_>
      <rects>
        <_>
          1 6 3 7 -1.</_>
        <_>
          2 6 1 7 3.</_></rects>
      <tilted>0</tilted></_>
    <_>
      <rects>
        <_>
          1 6 6 1 -1.</_>
        <_>
          3 6 2 1 3.</_></rects>
      <tilted>0</tilted></_>
    <_>
      <rects>
        <_>
          1 6 10 9 -1.</_>
        <_>
          6 6 5 9 2.</_></rects>
      <tilted>0</tilted></_>
    <_>
      <rects>
        <_>
          1 8 6 4 -1.</_>
        <_>
          3 8 2 4 3.</_></rects>
      <tilted>0</tilted></_>
    <_>
      <rects>
        <_>
          2 4 2 8 -1.</_>
        <_>
          2 4 1 4 2.</_>
        <_>
          3 8 1 4 2.</_></rects>
      <tilted>0</tilted></_>
    <_>
      <rects>
        <_>
          2 13 3 1 -1.</_>
        <_>
          3 13 1 1 3.</_></rects>
      <tilted>0</tilted></_>
    <_>
      <rects>
        <_>
          2 13 6 3 -1.</_>
        <_>
          4 13 2 3 3.</_></rects>
      <tilted>0</tilted></_>
    <_>
      <rects>
        <_>
          3 10 4 4 -1.</_>
        <_>
          3 10 2 2 2.</_>
        <_>
          5 12 2 2 2.</_></rects>
      <tilted>0</tilted></_>
    <_>
      <rects>
        <_>
          3 11 14 3 -1.</_>
        <_>
          3 12 14 1 3.</_></rects>
      <tilted>0</tilted></_>
    <_>
      <rects>
        <_>
          4 6 9 3 -1.</_>
        <_>
          4 7 9 1 3.</_></rects>
      <tilted>0</tilted></_>
    <_>
      <rects>
        <_>
          4 7 11 6 -1.</_>
        <_>
          4 9 11 2 3.</_></rects>
      <tilted>0</tilted></_>
    <_>
      <rects>
        <_>
          6 12 2 4 -1.</_>
        <_>
          6 14 2 2 2.</_></rects>
      <tilted>0</tilted></_>
    <_>
      <rects>
        <_>
          7 6 4 8 -1.</_>
        <_>
          9 6 2 8 2.</_></rects>
      <tilted>0</tilted></_>
    <_>
      <rects>
        <_>
          7 9 6 2 -1.</_>
        <_>
          9 9 2 2 3.</_></rects>
      <tilted>0</tilted></_>
    <_>
      <rects>
        <_>
          8 7 4 6 -1.</_>
        <_>
          8 9 4 2 3.</_></rects>
      <tilted>0</tilted></_>
    <_>
      <rects>
        <_>
          9 4 6 4 -1.</_>
        <_>
          9 4 3 2 2.</_>
        <_>
          12 6 3 2 2.</_></rects>
      <tilted>0</tilted></_>
    <_>
      <rects>
        <_>
          9 6 1 6 -1.</_>
        <_>
          9 8 1 2 3.</_></rects>
      <tilted>0</tilted></_>
    <_>
      <rects>
        <_>
          9 8 2 4 -1.</_>
        <_>
          9 8 1 2 2.</_>
        <_>
          10 10 1 2 2.</_></rects>
      <tilted>0</tilted></_>
    <_>
      <rects>
        <_>
          9 14 2 3 -1.</_>
        <_>
          9 15 2 1 3.</_></rects>
      <tilted>0</tilted></_>
    <_>
      <rects>
        <_>
          10 6 1 9 -1.</_>
        <_>
          10 9 1 3 3.</_></rects>
      <tilted>0</tilted></_></features></cascade>
</opencv_storage>
