<?xml version="1.0"?>
<opencv_storage>
<cascade>
  <stageType>BOOST</stageType>
  <featureType>HAAR</featureType>
  <height>20</height>
  <width>20</width>
  <stageParams>
    <boostType>GAB</boostType>
    <minHitRate>9.9500000476837158e-01</minHitRate>
    <maxFalseAlarm>5.0000000000000000e-01</maxFalseAlarm>
    <weightTrimRate>9.4999999999999996e-01</weightTrimRate>
    <maxDepth>1</maxDepth>
    <maxWeakCount>100</maxWeakCount></stageParams>
  <featureParams>
    <maxCatCount>0</maxCatCount>
    <featSize>1</featSize>
    <mode>BASIC</mode></featureParams>
  <stageNum>11</stageNum>
  <stages>
    <!-- stage 0 -->
    <_>
      <maxWeakCount>1</maxWeakCount>
      <stageThreshold>9.7857534885406494e-01</stageThreshold>
      <weakClassifiers>
        <_>
          <internalNodes>
            0 -1 11 2.0665951073169708e-02</internalNodes>
          <leafValues>
            -9.8110234737396240e-01 9.7857534885406494e-01</leafValues></_></weakClassifiers></_>
    <!-- stage 1 -->
    <_>
      <maxWeakCount>2</maxWeakCount>
      <stageThreshold>-6.8862773478031158e-02</stageThreshold>
      <weakClassifiers>
        <_>
          <internalNodes>
            0 -1 5 -1.0013689287006855e-02</internalNodes>
          <leafValues>
            9.3001401424407959e-01 -9.6934688091278076e-01</leafValues></_>
        <_>
          <internalNodes>
            0 -1 9 -4.6426147222518921e-02</internalNodes>
          <leafValues>
            9.0048408508300781e-01 -9.6220260858535767e-01</leafValues></_></weakClassifiers></_>
    <!-- stage 2 -->
    <_>
      <maxWeakCount>2</maxWeakCount>
      <stageThreshold>-1.4835448563098907e-01</stageThreshold>
      <weakClassifiers>
        <_>
          <internalNodes>
            0 -1 17 7.4703763239085674e-03</internalNodes>
          <leafValues>
            -9.4571012258529663e-01 8.9630895853042603e-01</leafValues></_>
        <_>
          <internalNodes>
            0 -1 10 -1.2733865529298782e-02</internalNodes>
          <leafValues>
            7.9735565185546875e-01 -9.1966319084167480e-01</leafValues></_></weakClassifiers></_>
    <!-- stage 3 -->
    <_>
      <maxWeakCount>2</maxWeakCount>
      <stageThreshold>-1.8499724566936493e-01</stageThreshold>
      <weakClassifiers>
        <_>
          <internalNodes>
            0 -1 2 3.3265635371208191e-02</internalNodes>
          <leafValues>
            -9.3696582317352295e-01 8.2082819938659668e-01</leafValues></_>
        <_>
          <internalNodes>
            0 -1 7 5.7829335331916809e-02</internalNodes>
          <leafValues>
            -8.6418217420578003e-01 7.5196856260299683e-01</leafValues></_></weakClassifiers></_>
    <!-- stage 4 -->
    <_>
      <maxWeakCount>2</maxWeakCount>
      <stageThreshold>-2.9191535711288452e-01</stageThreshold>
      <weakClassifiers>
        <_>
          <internalNodes>
            0 -1 3 -4.8836153000593185e-03</internalNodes>
          <leafValues>
            8.0000001192092896e-01 -9.4999998807907104e-01</leafValues></_>
        <_>
          <internalNodes>
            0 -1 13 -5.4089557379484177e-03</internalNodes>
          <leafValues>
            6.5808463096618652e-01 -9.3108731508255005e-01</leafValues></_></weakClassifiers></_>
    <!-- stage 5 -->
    <_>
      <maxWeakCount>2</maxWeakCount>
      <stageThreshold>-2.1670489013195038e-01</stageThreshold>
      <weakClassifiers>
        <_>
          <internalNodes>
            0 -1 15 -5.3133969195187092e-03</internalNodes>
          <leafValues>
            7.8694641590118408e-01 -9.2026764154434204e-01</leafValues></_>
        <_>
          <internalNodes>
            0 -1 6 -4.2892498895525932e-03</internalNodes>
          <leafValues>
            7.0356273651123047e-01 -8.4698021411895752e-01</leafValues></_></weakClassifiers></_>
    <!-- stage 6 -->
    <_>
      <maxWeakCount>2</maxWeakCount>
      <stageThreshold>-6.1516915448009968e-03</stageThreshold>
      <weakClassifiers>
        <_>
          <internalNodes>
            0 -1 1 -6.3520176336169243e-03</internalNodes>
          <leafValues>
            8.2688349485397339e-01 -9.3393236398696899e-01</leafValues></_>
        <_>
          <internalNodes>
            0 -1 19 3.4595229662954807e-03</internalNodes>
          <leafValues>
            -7.9119640588760376e-01 9.2778062820434570e-01</leafValues></_></weakClassifiers></_>
    <!-- stage 7 -->
    <_>
      <maxWeakCount>2</maxWeakCount>
      <stageThreshold>-1.2885969877243042e-01</stageThreshold>
      <weakClassifiers>
        <_>
          <internalNodes>
            0 -1 18 -9.7070336341857910e-03</internalNodes>
          <leafValues>
            8.4317940473556519e-01 -7.9952269792556763e-01</leafValues></_>
        <_>
          <internalNodes>
            0 -1 14 -7.3093599639832973e-03</internalNodes>
          <leafValues>
            6.7066299915313721e-01 -9.6804207563400269e-01</leafValues></_></weakClassifiers></_>
    <!-- stage 8 -->
    <_>
      <maxWeakCount>1</maxWeakCount>
      <stageThreshold>7.5752818584442139e-01</stageThreshold>
      <weakClassifiers>
        <_>
          <internalNodes>
            0 -1 12 2.2580468794330955e-04</internalNodes>
          <leafValues>
            -9.7518908977508545e-01 7.5752818584442139e-01</leafValues></_></weakClassifiers></_>
    <!-- stage 9 -->
    <_>
      <maxWeakCount>2</maxWeakCount>
      <stageThreshold>-3.0713835358619690e-01</stageThreshold>
      <weakClassifiers>
        <_>
          <internalNodes>
            0 -1 4 5.8374954387545586e-03</internalNodes>
          <leafValues>
            -9.5001417398452759e-01 7.8615093231201172e-01</leafValues></_>
        <_>
          <internalNodes>
            0 -1 0 -5.6872991845011711e-03</internalNodes>
          <leafValues>
            6.4287585020065308e-01 -9.5952475070953369e-01</leafValues></_></weakClassifiers></_>
    <!-- stage 10 -->
    <_>
      <maxWeakCount>2</maxWeakCount>
      <stageThreshold>-1.4316460490226746e-01</stageThreshold>
      <weakClassifiers>
        <_>
          <internalNodes>
            0 -1 8 -7.4599916115403175e-03</internalNodes>
          <leafValues>
            8.1767785549163818e-01 -9.2178773880004883e-01</leafValues></_>
        <_>
          <internalNodes>
            0 -1 16 5.2865413017570972e-03</internalNodes>
          <leafValues>
            -7.7824765443801880e-01 7.7862310409545898e-01</leafValues></_></weakClassifiers></_></stages>
  <features>
    <_>
      <rects>
        <_>
          1 6 6 1 -1.</_>
        <_>
          3 6 2 1 3.</_></rects>
      <tilted>0</tilted></_>
    <_>
      <rects>
        <_>
          1 7 3 3 -1.</_>
        <_>
          2 7 1 3 3.</_></rects>
      <tilted>0</tilted></_>
    <_>
      <rects>
        <_>
          1 8 6 4 -1.</_>
        <_>
          3 8 2 4 3.</_></rects>
      <tilted>0</tilted></_>
    <_>
      <rects>
        <_>
          1 11 3 2 -1.</_>
        <_>
          2 11 1 2 3.</_></rects>
      <tilted>0</tilted></_>
    <_>
      <rects>
        <_>
          1 11 9 3 -1.</_>
        <_>
          4 11 3 3 3.</_></rects>
      <tilted>0</tilted></_>
    <_>
      <rects>
        <_>
          2 8 2 8 -1.</_>
        <_>
          2 8 1 4 2.</_>
        <_>
          3 12 1 4 2.</_></rects>
      <tilted>0</tilted></_>
    <_>
      <rects>
        <_>
          3 13 4 2 -1.</_>
        <_>
          3 13 2 1 2.</_>
        <_>
          5 14 2 1 2.</_></rects>
      <tilted>0</tilted></_>
    <_>
      <rects>
        <_>
          4 5 12 6 -1.</_>
        <_>
          4 7 12 2 3.</_></rects>
      <tilted>0</tilted></_>
    <_>
      <rects>
        <_>
          4 7 2 6 -1.</_>
        <_>
          5 7 1 6 2.</_></rects>
      <tilted>0</tilted></_>
    <_>
      <rects>
        <_>
          4 7 10 6 -1.</_>
        <_>
          4 9 10 2 3.</_></rects>
      <tilted>0</tilted></_>
    <_>
      <rects>
        <_>
          5 4 6 4 -1.</_>
        <_>
          5 4 3 2 2.</_>
        <_>
          8 6 3 2 2.</_></rects>
      <tilted>0</tilted></_>
    <_>
      <rects>
        <_>
          7 9 6 2 -1.</_>
        <_>
          9 9 2 2 3.</_></rects>
      <tilted>0</tilted></_>
    <_>
      <rects>
        <_>
          7 10 2 2 -1.</_>
        <_>
          7 10 1 1 2.</_>
        <_>
          8 11 1 1 2.</_></rects>
      <tilted>0</tilted></_>
    <_>
      <rects>
        <_>
          7 12 4 2 -1.</_>
        <_>
          9 12 2 2 2.</_></rects>
      <tilted>0</tilted></_>
    <_>
      <rects>
        <_>
          8 7 4 6 -1.</_>
        <_>
          8 9 4 2 3.</_></rects>
      <tilted>0</tilted></_>
    <_>
      <rects>
        <_>
          8 12 4 2 -1.</_>
        <_>
          8 13 4 1 2.</_></rects>
      <tilted>0</tilted></_>
    <_>
      <rects>
        <_>
          9 3 2 3 -1.</_>
        <_>
          9 4 2 1 3.</_></rects>
      <tilted>0</tilted></_>
    <_>
      <rects>
        <_>
          9 8 2 4 -1.</_>
        <_>
          9 8 1 2 2.</_>
        <_>
          10 10 1 2 2.</_></rects>
      <tilted>0</tilted></_>
    <_>
      <rects>
        <_>
          9 12 6 4 -1.</_>
        <_>
          9 12 3 2 2.</_>
        <_>
          12 14 3 2 2.</_></rects>
      <tilted>0</tilted></_>
    <_>
      <rects>
        <_>
          10 7 2 2 -1.</_>
        <_>
          11 7 1 2 2.</_></rects>
      <tilted>0</tilted></_></features></cascade>
</opencv_storage>
